digraph Tree {
node [shape=box] ;
0 [label="X[5] <= 0.5\ngini = 0.45\nsamples = 984\nvalue = [647, 337]"] ;
1 [label="X[3] <= 0.5\ngini = 0.45\nsamples = 340\nvalue = [116, 224]"] ;
0 -> 1 [labeldistance=2.5, labelangle=45, headlabel="True"] ;
2 [label="X[0] <= 62.5\ngini = 0.173\nsamples = 188\nvalue = [18, 170]"] ;
1 -> 2 ;
3 [label="X[0] <= 30.5\ngini = 0.166\nsamples = 186\nvalue = [17, 169]"] ;
2 -> 3 ;
4 [label="X[0] <= 21.5\ngini = 0.208\nsamples = 110\nvalue = [13, 97]"] ;
3 -> 4 ;
5 [label="X[0] <= 1.0\ngini = 0.156\nsamples = 82\nvalue = [7, 75]"] ;
4 -> 5 ;
6 [label="X[1] <= 0.5\ngini = 0.227\nsamples = 46\nvalue = [6, 40]"] ;
5 -> 6 ;
7 [label="gini = 0.231\nsamples = 15\nvalue = [2, 13]"] ;
6 -> 7 ;
8 [label="gini = 0.225\nsamples = 31\nvalue = [4, 27]"] ;
6 -> 8 ;
9 [label="X[0] <= 17.5\ngini = 0.054\nsamples = 36\nvalue = [1, 35]"] ;
5 -> 9 ;
10 [label="gini = 0.0\nsamples = 17\nvalue = [0, 17]"] ;
9 -> 10 ;
11 [label="X[0] <= 18.5\ngini = 0.1\nsamples = 19\nvalue = [1, 18]"] ;
9 -> 11 ;
12 [label="X[1] <= 0.5\ngini = 0.278\nsamples = 6\nvalue = [1, 5]"] ;
11 -> 12 ;
13 [label="gini = 0.444\nsamples = 3\nvalue = [1, 2]"] ;
12 -> 13 ;
14 [label="gini = 0.0\nsamples = 3\nvalue = [0, 3]"] ;
12 -> 14 ;
15 [label="gini = 0.0\nsamples = 13\nvalue = [0, 13]"] ;
11 -> 15 ;
16 [label="X[0] <= 22.5\ngini = 0.337\nsamples = 28\nvalue = [6, 22]"] ;
4 -> 16 ;
17 [label="X[2] <= 0.5\ngini = 0.48\nsamples = 5\nvalue = [2, 3]"] ;
16 -> 17 ;
18 [label="gini = 0.0\nsamples = 2\nvalue = [0, 2]"] ;
17 -> 18 ;
19 [label="gini = 0.444\nsamples = 3\nvalue = [2, 1]"] ;
17 -> 19 ;
20 [label="X[0] <= 24.5\ngini = 0.287\nsamples = 23\nvalue = [4, 19]"] ;
16 -> 20 ;
21 [label="gini = 0.0\nsamples = 6\nvalue = [0, 6]"] ;
20 -> 21 ;
22 [label="X[0] <= 26.5\ngini = 0.36\nsamples = 17\nvalue = [4, 13]"] ;
20 -> 22 ;
23 [label="X[1] <= 0.5\ngini = 0.48\nsamples = 5\nvalue = [2, 3]"] ;
22 -> 23 ;
24 [label="X[0] <= 25.5\ngini = 0.375\nsamples = 4\nvalue = [1, 3]"] ;
23 -> 24 ;
25 [label="gini = 0.0\nsamples = 2\nvalue = [0, 2]"] ;
24 -> 25 ;
26 [label="gini = 0.5\nsamples = 2\nvalue = [1, 1]"] ;
24 -> 26 ;
27 [label="gini = 0.0\nsamples = 1\nvalue = [1, 0]"] ;
23 -> 27 ;
28 [label="X[2] <= 0.5\ngini = 0.278\nsamples = 12\nvalue = [2, 10]"] ;
22 -> 28 ;
29 [label="gini = 0.0\nsamples = 4\nvalue = [0, 4]"] ;
28 -> 29 ;
30 [label="X[0] <= 27.5\ngini = 0.375\nsamples = 8\nvalue = [2, 6]"] ;
28 -> 30 ;
31 [label="gini = 0.5\nsamples = 2\nvalue = [1, 1]"] ;
30 -> 31 ;
32 [label="X[0] <= 29.5\ngini = 0.278\nsamples = 6\nvalue = [1, 5]"] ;
30 -> 32 ;
33 [label="gini = 0.0\nsamples = 4\nvalue = [0, 4]"] ;
32 -> 33 ;
34 [label="gini = 0.5\nsamples = 2\nvalue = [1, 1]"] ;
32 -> 34 ;
35 [label="X[0] <= 35.5\ngini = 0.1\nsamples = 76\nvalue = [4, 72]"] ;
3 -> 35 ;
36 [label="gini = 0.0\nsamples = 16\nvalue = [0, 16]"] ;
35 -> 36 ;
37 [label="X[2] <= 0.5\ngini = 0.124\nsamples = 60\nvalue = [4, 56]"] ;
35 -> 37 ;
38 [label="X[0] <= 36.5\ngini = 0.085\nsamples = 45\nvalue = [2, 43]"] ;
37 -> 38 ;
39 [label="gini = 0.375\nsamples = 4\nvalue = [1, 3]"] ;
38 -> 39 ;
40 [label="X[0] <= 49.5\ngini = 0.048\nsamples = 41\nvalue = [1, 40]"] ;
38 -> 40 ;
41 [label="gini = 0.0\nsamples = 20\nvalue = [0, 20]"] ;
40 -> 41 ;
42 [label="X[0] <= 51.0\ngini = 0.091\nsamples = 21\nvalue = [1, 20]"] ;
40 -> 42 ;
43 [label="gini = 0.375\nsamples = 4\nvalue = [1, 3]"] ;
42 -> 43 ;
44 [label="gini = 0.0\nsamples = 17\nvalue = [0, 17]"] ;
42 -> 44 ;
45 [label="X[0] <= 55.0\ngini = 0.231\nsamples = 15\nvalue = [2, 13]"] ;
37 -> 45 ;
46 [label="X[0] <= 44.5\ngini = 0.133\nsamples = 14\nvalue = [1, 13]"] ;
45 -> 46 ;
47 [label="X[0] <= 43.0\ngini = 0.245\nsamples = 7\nvalue = [1, 6]"] ;
46 -> 47 ;
48 [label="gini = 0.0\nsamples = 6\nvalue = [0, 6]"] ;
47 -> 48 ;
49 [label="gini = 0.0\nsamples = 1\nvalue = [1, 0]"] ;
47 -> 49 ;
50 [label="gini = 0.0\nsamples = 7\nvalue = [0, 7]"] ;
46 -> 50 ;
51 [label="gini = 0.0\nsamples = 1\nvalue = [1, 0]"] ;
45 -> 51 ;
52 [label="X[0] <= 63.5\ngini = 0.5\nsamples = 2\nvalue = [1, 1]"] ;
2 -> 52 ;
53 [label="gini = 0.0\nsamples = 1\nvalue = [1, 0]"] ;
52 -> 53 ;
54 [label="gini = 0.0\nsamples = 1\nvalue = [0, 1]"] ;
52 -> 54 ;
55 [label="X[0] <= 0.083\ngini = 0.458\nsamples = 152\nvalue = [98, 54]"] ;
1 -> 55 ;
56 [label="gini = 0.409\nsamples = 108\nvalue = [77, 31]"] ;
55 -> 56 ;
57 [label="X[0] <= 19.5\ngini = 0.499\nsamples = 44\nvalue = [21, 23]"] ;
55 -> 57 ;
58 [label="X[0] <= 13.0\ngini = 0.432\nsamples = 19\nvalue = [6, 13]"] ;
57 -> 58 ;
59 [label="X[0] <= 7.0\ngini = 0.49\nsamples = 7\nvalue = [3, 4]"] ;
58 -> 59 ;
60 [label="X[0] <= 2.5\ngini = 0.32\nsamples = 5\nvalue = [1, 4]"] ;
59 -> 60 ;
61 [label="X[0] <= 1.083\ngini = 0.5\nsamples = 2\nvalue = [1, 1]"] ;
60 -> 61 ;
62 [label="gini = 0.0\nsamples = 1\nvalue = [0, 1]"] ;
61 -> 62 ;
63 [label="gini = 0.0\nsamples = 1\nvalue = [1, 0]"] ;
61 -> 63 ;
64 [label="gini = 0.0\nsamples = 3\nvalue = [0, 3]"] ;
60 -> 64 ;
65 [label="gini = 0.0\nsamples = 2\nvalue = [2, 0]"] ;
59 -> 65 ;
66 [label="X[0] <= 16.5\ngini = 0.375\nsamples = 12\nvalue = [3, 9]"] ;
58 -> 66 ;
67 [label="gini = 0.0\nsamples = 3\nvalue = [0, 3]"] ;
66 -> 67 ;
68 [label="X[0] <= 18.5\ngini = 0.444\nsamples = 9\nvalue = [3, 6]"] ;
66 -> 68 ;
69 [label="X[0] <= 17.5\ngini = 0.469\nsamples = 8\nvalue = [3, 5]"] ;
68 -> 69 ;
70 [label="gini = 0.444\nsamples = 3\nvalue = [1, 2]"] ;
69 -> 70 ;
71 [label="gini = 0.48\nsamples = 5\nvalue = [2, 3]"] ;
69 -> 71 ;
72 [label="gini = 0.0\nsamples = 1\nvalue = [0, 1]"] ;
68 -> 72 ;
73 [label="X[0] <= 21.5\ngini = 0.48\nsamples = 25\nvalue = [15, 10]"] ;
57 -> 73 ;
74 [label="gini = 0.0\nsamples = 4\nvalue = [4, 0]"] ;
73 -> 74 ;
75 [label="X[0] <= 36.5\ngini = 0.499\nsamples = 21\nvalue = [11, 10]"] ;
73 -> 75 ;
76 [label="X[0] <= 32.5\ngini = 0.49\nsamples = 14\nvalue = [6, 8]"] ;
75 -> 76 ;
77 [label="X[0] <= 23.5\ngini = 0.496\nsamples = 11\nvalue = [6, 5]"] ;
76 -> 77 ;
78 [label="X[0] <= 22.5\ngini = 0.375\nsamples = 4\nvalue = [1, 3]"] ;
77 -> 78 ;
79 [label="gini = 0.444\nsamples = 3\nvalue = [1, 2]"] ;
78 -> 79 ;
80 [label="gini = 0.0\nsamples = 1\nvalue = [0, 1]"] ;
78 -> 80 ;
81 [label="X[0] <= 29.0\ngini = 0.408\nsamples = 7\nvalue = [5, 2]"] ;
77 -> 81 ;
82 [label="gini = 0.0\nsamples = 3\nvalue = [3, 0]"] ;
81 -> 82 ;
83 [label="X[0] <= 31.0\ngini = 0.5\nsamples = 4\nvalue = [2, 2]"] ;
81 -> 83 ;
84 [label="gini = 0.444\nsamples = 3\nvalue = [1, 2]"] ;
83 -> 84 ;
85 [label="gini = 0.0\nsamples = 1\nvalue = [1, 0]"] ;
83 -> 85 ;
86 [label="gini = 0.0\nsamples = 3\nvalue = [0, 3]"] ;
76 -> 86 ;
87 [label="X[0] <= 37.5\ngini = 0.408\nsamples = 7\nvalue = [5, 2]"] ;
75 -> 87 ;
88 [label="gini = 0.0\nsamples = 1\nvalue = [1, 0]"] ;
87 -> 88 ;
89 [label="X[0] <= 46.5\ngini = 0.444\nsamples = 6\nvalue = [4, 2]"] ;
87 -> 89 ;
90 [label="X[0] <= 39.0\ngini = 0.48\nsamples = 5\nvalue = [3, 2]"] ;
89 -> 90 ;
91 [label="gini = 0.5\nsamples = 2\nvalue = [1, 1]"] ;
90 -> 91 ;
92 [label="X[0] <= 42.5\ngini = 0.444\nsamples = 3\nvalue = [2, 1]"] ;
90 -> 92 ;
93 [label="gini = 0.0\nsamples = 1\nvalue = [1, 0]"] ;
92 -> 93 ;
94 [label="gini = 0.5\nsamples = 2\nvalue = [1, 1]"] ;
92 -> 94 ;
95 [label="gini = 0.0\nsamples = 1\nvalue = [1, 0]"] ;
89 -> 95 ;
96 [label="X[1] <= 0.5\ngini = 0.289\nsamples = 644\nvalue = [531, 113]"] ;
0 -> 96 [labeldistance=2.5, labelangle=-45, headlabel="False"] ;
97 [label="X[0] <= 34.5\ngini = 0.233\nsamples = 504\nvalue = [436, 68]"] ;
96 -> 97 ;
98 [label="X[0] <= 0.667\ngini = 0.249\nsamples = 459\nvalue = [392, 67]"] ;
97 -> 98 ;
99 [label="X[0] <= 0.167\ngini = 0.227\nsamples = 307\nvalue = [267, 40]"] ;
98 -> 99 ;
100 [label="X[2] <= 0.5\ngini = 0.227\nsamples = 306\nvalue = [266, 40]"] ;
99 -> 100 ;
101 [label="gini = 0.231\nsamples = 270\nvalue = [234, 36]"] ;
100 -> 101 ;
102 [label="gini = 0.198\nsamples = 36\nvalue = [32, 4]"] ;
100 -> 102 ;
103 [label="gini = 0.0\nsamples = 1\nvalue = [1, 0]"] ;
99 -> 103 ;
104 [label="X[0] <= 10.0\ngini = 0.292\nsamples = 152\nvalue = [125, 27]"] ;
98 -> 104 ;
105 [label="X[2] <= 0.5\ngini = 0.391\nsamples = 15\nvalue = [4, 11]"] ;
104 -> 105 ;
106 [label="X[0] <= 3.5\ngini = 0.49\nsamples = 7\nvalue = [4, 3]"] ;
105 -> 106 ;
107 [label="gini = 0.0\nsamples = 1\nvalue = [0, 1]"] ;
106 -> 107 ;
108 [label="X[0] <= 7.5\ngini = 0.444\nsamples = 6\nvalue = [4, 2]"] ;
106 -> 108 ;
109 [label="gini = 0.0\nsamples = 2\nvalue = [2, 0]"] ;
108 -> 109 ;
110 [label="gini = 0.5\nsamples = 4\nvalue = [2, 2]"] ;
108 -> 110 ;
111 [label="gini = 0.0\nsamples = 8\nvalue = [0, 8]"] ;
105 -> 111 ;
112 [label="X[0] <= 18.5\ngini = 0.206\nsamples = 137\nvalue = [121, 16]"] ;
104 -> 112 ;
113 [label="gini = 0.0\nsamples = 18\nvalue = [18, 0]"] ;
112 -> 113 ;
114 [label="X[0] <= 20.5\ngini = 0.233\nsamples = 119\nvalue = [103, 16]"] ;
112 -> 114 ;
115 [label="X[0] <= 19.5\ngini = 0.401\nsamples = 18\nvalue = [13, 5]"] ;
114 -> 115 ;
116 [label="X[3] <= 0.5\ngini = 0.444\nsamples = 9\nvalue = [6, 3]"] ;
115 -> 116 ;
117 [label="gini = 0.375\nsamples = 4\nvalue = [3, 1]"] ;
116 -> 117 ;
118 [label="gini = 0.48\nsamples = 5\nvalue = [3, 2]"] ;
116 -> 118 ;
119 [label="X[3] <= 0.5\ngini = 0.346\nsamples = 9\nvalue = [7, 2]"] ;
115 -> 119 ;
120 [label="gini = 0.5\nsamples = 2\nvalue = [1, 1]"] ;
119 -> 120 ;
121 [label="gini = 0.245\nsamples = 7\nvalue = [6, 1]"] ;
119 -> 121 ;
122 [label="X[0] <= 22.5\ngini = 0.194\nsamples = 101\nvalue = [90, 11]"] ;
114 -> 122 ;
123 [label="gini = 0.0\nsamples = 14\nvalue = [14, 0]"] ;
122 -> 123 ;
124 [label="X[0] <= 28.5\ngini = 0.221\nsamples = 87\nvalue = [76, 11]"] ;
122 -> 124 ;
125 [label="X[0] <= 25.5\ngini = 0.177\nsamples = 51\nvalue = [46, 5]"] ;
124 -> 125 ;
126 [label="X[3] <= 0.5\ngini = 0.26\nsamples = 26\nvalue = [22, 4]"] ;
125 -> 126 ;
127 [label="X[0] <= 23.5\ngini = 0.18\nsamples = 10\nvalue = [9, 1]"] ;
126 -> 127 ;
128 [label="gini = 0.0\nsamples = 5\nvalue = [5, 0]"] ;
127 -> 128 ;
129 [label="X[0] <= 24.5\ngini = 0.32\nsamples = 5\nvalue = [4, 1]"] ;
127 -> 129 ;
130 [label="gini = 0.5\nsamples = 2\nvalue = [1, 1]"] ;
129 -> 130 ;
131 [label="gini = 0.0\nsamples = 3\nvalue = [3, 0]"] ;
129 -> 131 ;
132 [label="X[0] <= 23.5\ngini = 0.305\nsamples = 16\nvalue = [13, 3]"] ;
126 -> 132 ;
133 [label="gini = 0.32\nsamples = 5\nvalue = [4, 1]"] ;
132 -> 133 ;
134 [label="X[0] <= 24.5\ngini = 0.298\nsamples = 11\nvalue = [9, 2]"] ;
132 -> 134 ;
135 [label="gini = 0.278\nsamples = 6\nvalue = [5, 1]"] ;
134 -> 135 ;
136 [label="gini = 0.32\nsamples = 5\nvalue = [4, 1]"] ;
134 -> 136 ;
137 [label="X[2] <= 0.5\ngini = 0.077\nsamples = 25\nvalue = [24, 1]"] ;
125 -> 137 ;
138 [label="gini = 0.0\nsamples = 12\nvalue = [12, 0]"] ;
137 -> 138 ;
139 [label="X[0] <= 26.5\ngini = 0.142\nsamples = 13\nvalue = [12, 1]"] ;
137 -> 139 ;
140 [label="gini = 0.32\nsamples = 5\nvalue = [4, 1]"] ;
139 -> 140 ;
141 [label="gini = 0.0\nsamples = 8\nvalue = [8, 0]"] ;
139 -> 141 ;
142 [label="X[0] <= 32.5\ngini = 0.278\nsamples = 36\nvalue = [30, 6]"] ;
124 -> 142 ;
143 [label="X[3] <= 0.5\ngini = 0.32\nsamples = 25\nvalue = [20, 5]"] ;
142 -> 143 ;
144 [label="X[0] <= 31.0\ngini = 0.231\nsamples = 15\nvalue = [13, 2]"] ;
143 -> 144 ;
145 [label="X[0] <= 29.5\ngini = 0.153\nsamples = 12\nvalue = [11, 1]"] ;
144 -> 145 ;
146 [label="gini = 0.0\nsamples = 2\nvalue = [2, 0]"] ;
145 -> 146 ;
147 [label="gini = 0.18\nsamples = 10\nvalue = [9, 1]"] ;
145 -> 147 ;
148 [label="gini = 0.444\nsamples = 3\nvalue = [2, 1]"] ;
144 -> 148 ;
149 [label="X[0] <= 30.5\ngini = 0.42\nsamples = 10\nvalue = [7, 3]"] ;
143 -> 149 ;
150 [label="X[0] <= 29.5\ngini = 0.5\nsamples = 4\nvalue = [2, 2]"] ;
149 -> 150 ;
151 [label="gini = 0.5\nsamples = 2\nvalue = [1, 1]"] ;
150 -> 151 ;
152 [label="gini = 0.5\nsamples = 2\nvalue = [1, 1]"] ;
150 -> 152 ;
153 [label="X[0] <= 31.5\ngini = 0.278\nsamples = 6\nvalue = [5, 1]"] ;
149 -> 153 ;
154 [label="gini = 0.0\nsamples = 1\nvalue = [1, 0]"] ;
153 -> 154 ;
155 [label="gini = 0.32\nsamples = 5\nvalue = [4, 1]"] ;
153 -> 155 ;
156 [label="X[2] <= 0.5\ngini = 0.165\nsamples = 11\nvalue = [10, 1]"] ;
142 -> 156 ;
157 [label="gini = 0.0\nsamples = 4\nvalue = [4, 0]"] ;
156 -> 157 ;
158 [label="X[0] <= 33.5\ngini = 0.245\nsamples = 7\nvalue = [6, 1]"] ;
156 -> 158 ;
159 [label="gini = 0.0\nsamples = 1\nvalue = [1, 0]"] ;
158 -> 159 ;
160 [label="gini = 0.278\nsamples = 6\nvalue = [5, 1]"] ;
158 -> 160 ;
161 [label="X[0] <= 41.5\ngini = 0.043\nsamples = 45\nvalue = [44, 1]"] ;
97 -> 161 ;
162 [label="X[0] <= 40.5\ngini = 0.091\nsamples = 21\nvalue = [20, 1]"] ;
161 -> 162 ;
163 [label="gini = 0.0\nsamples = 17\nvalue = [17, 0]"] ;
162 -> 163 ;
164 [label="X[2] <= 0.5\ngini = 0.375\nsamples = 4\nvalue = [3, 1]"] ;
162 -> 164 ;
165 [label="gini = 0.0\nsamples = 2\nvalue = [2, 0]"] ;
164 -> 165 ;
166 [label="gini = 0.5\nsamples = 2\nvalue = [1, 1]"] ;
164 -> 166 ;
167 [label="gini = 0.0\nsamples = 24\nvalue = [24, 0]"] ;
161 -> 167 ;
168 [label="X[0] <= 54.5\ngini = 0.436\nsamples = 140\nvalue = [95, 45]"] ;
96 -> 168 ;
169 [label="X[0] <= 0.458\ngini = 0.463\nsamples = 118\nvalue = [75, 43]"] ;
168 -> 169 ;
170 [label="gini = 0.397\nsamples = 44\nvalue = [32, 12]"] ;
169 -> 170 ;
171 [label="X[0] <= 16.0\ngini = 0.487\nsamples = 74\nvalue = [43, 31]"] ;
169 -> 171 ;
172 [label="gini = 0.0\nsamples = 4\nvalue = [0, 4]"] ;
171 -> 172 ;
173 [label="X[0] <= 38.5\ngini = 0.474\nsamples = 70\nvalue = [43, 27]"] ;
171 -> 173 ;
174 [label="X[0] <= 33.5\ngini = 0.498\nsamples = 32\nvalue = [17, 15]"] ;
173 -> 174 ;
175 [label="X[0] <= 28.5\ngini = 0.483\nsamples = 22\nvalue = [13, 9]"] ;
174 -> 175 ;
176 [label="X[0] <= 27.5\ngini = 0.497\nsamples = 13\nvalue = [6, 7]"] ;
175 -> 176 ;
177 [label="X[0] <= 23.0\ngini = 0.496\nsamples = 11\nvalue = [6, 5]"] ;
176 -> 177 ;
178 [label="X[0] <= 20.0\ngini = 0.375\nsamples = 4\nvalue = [3, 1]"] ;
177 -> 178 ;
179 [label="gini = 0.0\nsamples = 1\nvalue = [1, 0]"] ;
178 -> 179 ;
180 [label="X[0] <= 21.5\ngini = 0.444\nsamples = 3\nvalue = [2, 1]"] ;
178 -> 180 ;
181 [label="gini = 0.5\nsamples = 2\nvalue = [1, 1]"] ;
180 -> 181 ;
182 [label="gini = 0.0\nsamples = 1\nvalue = [1, 0]"] ;
180 -> 182 ;
183 [label="X[0] <= 24.5\ngini = 0.49\nsamples = 7\nvalue = [3, 4]"] ;
177 -> 183 ;
184 [label="gini = 0.0\nsamples = 1\nvalue = [0, 1]"] ;
183 -> 184 ;
185 [label="X[0] <= 26.0\ngini = 0.5\nsamples = 6\nvalue = [3, 3]"] ;
183 -> 185 ;
186 [label="gini = 0.5\nsamples = 2\nvalue = [1, 1]"] ;
185 -> 186 ;
187 [label="gini = 0.5\nsamples = 4\nvalue = [2, 2]"] ;
185 -> 187 ;
188 [label="gini = 0.0\nsamples = 2\nvalue = [0, 2]"] ;
176 -> 188 ;
189 [label="X[0] <= 30.5\ngini = 0.346\nsamples = 9\nvalue = [7, 2]"] ;
175 -> 189 ;
190 [label="gini = 0.0\nsamples = 3\nvalue = [3, 0]"] ;
189 -> 190 ;
191 [label="X[0] <= 32.5\ngini = 0.444\nsamples = 6\nvalue = [4, 2]"] ;
189 -> 191 ;
192 [label="X[0] <= 31.5\ngini = 0.5\nsamples = 4\nvalue = [2, 2]"] ;
191 -> 192 ;
193 [label="gini = 0.5\nsamples = 2\nvalue = [1, 1]"] ;
192 -> 193 ;
194 [label="gini = 0.5\nsamples = 2\nvalue = [1, 1]"] ;
192 -> 194 ;
195 [label="gini = 0.0\nsamples = 2\nvalue = [2, 0]"] ;
191 -> 195 ;
196 [label="X[0] <= 36.5\ngini = 0.48\nsamples = 10\nvalue = [4, 6]"] ;
174 -> 196 ;
197 [label="X[0] <= 35.5\ngini = 0.32\nsamples = 5\nvalue = [1, 4]"] ;
196 -> 197 ;
198 [label="gini = 0.0\nsamples = 2\nvalue = [0, 2]"] ;
197 -> 198 ;
199 [label="gini = 0.444\nsamples = 3\nvalue = [1, 2]"] ;
197 -> 199 ;
200 [label="X[0] <= 37.5\ngini = 0.48\nsamples = 5\nvalue = [3, 2]"] ;
196 -> 200 ;
201 [label="gini = 0.444\nsamples = 3\nvalue = [2, 1]"] ;
200 -> 201 ;
202 [label="gini = 0.5\nsamples = 2\nvalue = [1, 1]"] ;
200 -> 202 ;
203 [label="X[0] <= 47.5\ngini = 0.432\nsamples = 38\nvalue = [26, 12]"] ;
173 -> 203 ;
204 [label="X[0] <= 45.5\ngini = 0.32\nsamples = 20\nvalue = [16, 4]"] ;
203 -> 204 ;
205 [label="X[0] <= 41.5\ngini = 0.426\nsamples = 13\nvalue = [9, 4]"] ;
204 -> 205 ;
206 [label="X[0] <= 40.0\ngini = 0.278\nsamples = 6\nvalue = [5, 1]"] ;
205 -> 206 ;
207 [label="gini = 0.375\nsamples = 4\nvalue = [3, 1]"] ;
206 -> 207 ;
208 [label="gini = 0.0\nsamples = 2\nvalue = [2, 0]"] ;
206 -> 208 ;
209 [label="X[0] <= 43.0\ngini = 0.49\nsamples = 7\nvalue = [4, 3]"] ;
205 -> 209 ;
210 [label="gini = 0.444\nsamples = 3\nvalue = [2, 1]"] ;
209 -> 210 ;
211 [label="X[0] <= 44.5\ngini = 0.5\nsamples = 4\nvalue = [2, 2]"] ;
209 -> 211 ;
212 [label="gini = 0.5\nsamples = 2\nvalue = [1, 1]"] ;
211 -> 212 ;
213 [label="gini = 0.5\nsamples = 2\nvalue = [1, 1]"] ;
211 -> 213 ;
214 [label="gini = 0.0\nsamples = 7\nvalue = [7, 0]"] ;
204 -> 214 ;
215 [label="X[0] <= 49.5\ngini = 0.494\nsamples = 18\nvalue = [10, 8]"] ;
203 -> 215 ;
216 [label="X[0] <= 48.5\ngini = 0.469\nsamples = 8\nvalue = [3, 5]"] ;
215 -> 216 ;
217 [label="gini = 0.5\nsamples = 2\nvalue = [1, 1]"] ;
216 -> 217 ;
218 [label="gini = 0.444\nsamples = 6\nvalue = [2, 4]"] ;
216 -> 218 ;
219 [label="X[0] <= 51.5\ngini = 0.42\nsamples = 10\nvalue = [7, 3]"] ;
215 -> 219 ;
220 [label="gini = 0.0\nsamples = 4\nvalue = [4, 0]"] ;
219 -> 220 ;
221 [label="X[0] <= 53.0\ngini = 0.5\nsamples = 6\nvalue = [3, 3]"] ;
219 -> 221 ;
222 [label="gini = 0.5\nsamples = 2\nvalue = [1, 1]"] ;
221 -> 222 ;
223 [label="gini = 0.5\nsamples = 4\nvalue = [2, 2]"] ;
221 -> 223 ;
224 [label="X[0] <= 60.5\ngini = 0.165\nsamples = 22\nvalue = [20, 2]"] ;
168 -> 224 ;
225 [label="X[0] <= 59.0\ngini = 0.32\nsamples = 10\nvalue = [8, 2]"] ;
224 -> 225 ;
226 [label="X[0] <= 55.5\ngini = 0.219\nsamples = 8\nvalue = [7, 1]"] ;
225 -> 226 ;
227 [label="gini = 0.0\nsamples = 3\nvalue = [3, 0]"] ;
226 -> 227 ;
228 [label="X[0] <= 56.5\ngini = 0.32\nsamples = 5\nvalue = [4, 1]"] ;
226 -> 228 ;
229 [label="gini = 0.5\nsamples = 2\nvalue = [1, 1]"] ;
228 -> 229 ;
230 [label="gini = 0.0\nsamples = 3\nvalue = [3, 0]"] ;
228 -> 230 ;
231 [label="gini = 0.5\nsamples = 2\nvalue = [1, 1]"] ;
225 -> 231 ;
232 [label="gini = 0.0\nsamples = 12\nvalue = [12, 0]"] ;
224 -> 232 ;
}